{
    "architecture": {
        "1_Linear": {
            "in_features": 5.0,
            " out_features": 5.0,
            " bias": true
        },
        "2_ReLU": {},
        "3_Linear": {
            "in_features": 5.0,
            " out_features": 5.0,
            " bias": true
        },
        "4_ReLU": {},
        "5_Linear": {
            "in_features": 5.0,
            " out_features": 2.0,
            " bias": true
        },
        "6_Identity": {}
    },
    "1": {
        "1_Linear": {
            "input": [
                [
                    -1.2670952081680298,
                    0.7710132002830505,
                    -1.4834473133087158,
                    0.5963250398635864,
                    0.6592545509338379
                ],
                [
                    -0.5430985689163208,
                    1.1187692880630493,
                    -0.9556261897087097,
                    -0.2828420102596283,
                    -0.7186158895492554
                ],
                [
                    -1.2725917100906372,
                    -1.7078553438186646,
                    0.8725003600120544,
                    -0.6119900345802307,
                    -1.0224615335464478
                ],
                [
                    -0.5496468544006348,
                    -0.3989148437976837,
                    0.14147238433361053,
                    -0.29414352774620056,
                    0.9526911973953247
                ],
                [
                    -1.0456621646881104,
                    -0.6217347979545593,
                    -1.6695033311843872,
                    0.3486365079879761,
                    1.4525361061096191
                ]
            ],
            "weight": [
                [
                    -0.023540228605270386,
                    -0.322441041469574,
                    -0.12374866008758545,
                    -0.0748634934425354,
                    -0.35792773962020874
                ],
                [
                    -0.19134321808815002,
                    -0.2304716259241104,
                    -0.18260011076927185,
                    0.11526191234588623,
                    0.1035999059677124
                ],
                [
                    -0.2623252868652344,
                    -0.3472907245159149,
                    -0.17376720905303955,
                    -0.05331727862358093,
                    -0.09481456875801086
                ],
                [
                    -0.033815860748291016,
                    -0.02890646457672119,
                    -0.09140697121620178,
                    0.3193816542625427,
                    0.009938091039657593
                ],
                [
                    0.33045393228530884,
                    -0.4425048530101776,
                    0.31146740913391113,
                    -0.17802315950393677,
                    -0.14780303835868835
                ]
            ],
            "bias": [
                0.26319849491119385,
                -0.31818991899490356,
                0.32563239336013794,
                0.12614542245864868,
                -0.06251847743988037
            ],
            "grad_output": [
                [
                    0.0,
                    -0.09197640419006348,
                    0.041158393025398254,
                    0.09458101540803909,
                    0.0
                ],
                [
                    -0.004087658599019051,
                    0.0,
                    -0.0017644739709794521,
                    -0.004681795369833708,
                    0.0
                ],
                [
                    -0.010137883014976978,
                    0.0,
                    -0.00646112160757184,
                    0.0,
                    -0.0012772837653756142
                ],
                [
                    -0.004599298350512981,
                    0.0,
                    -0.0015676356852054596,
                    -0.0066128941252827644,
                    0.0
                ],
                [
                    -0.0006321912514977157,
                    0.0011424579424783587,
                    -0.00040291022742167115,
                    -0.0012641374487429857,
                    0.0
                ]
            ],
            "grad_weight": [
                [
                    -0.023540228605270386,
                    -0.322441041469574,
                    -0.12374866008758545,
                    -0.0748634934425354,
                    -0.35792773962020874
                ],
                [
                    -0.19134321808815002,
                    -0.2304716259241104,
                    -0.18260011076927185,
                    0.11526191234588623,
                    0.1035999059677124
                ],
                [
                    -0.2623252868652344,
                    -0.3472907245159149,
                    -0.17376720905303955,
                    -0.05331727862358093,
                    -0.09481456875801086
                ],
                [
                    -0.033815860748291016,
                    -0.02890646457672119,
                    -0.09140697121620178,
                    0.3193816542625427,
                    0.009938091039657593
                ],
                [
                    0.33045393228530884,
                    -0.4425048530101776,
                    0.31146740913391113,
                    -0.17802315950393677,
                    -0.14780303835868835
                ]
            ],
            "grad_bias": [
                0.26319849491119385,
                -0.31818991899490356,
                0.32563239336013794,
                0.12614542245864868,
                -0.06251847743988037
            ]
        },
        "2_ReLU": {
            "input": [
                [
                    -0.05261394381523132,
                    0.1544734239578247,
                    0.5537309050559998,
                    0.4793105125427246,
                    -1.488057017326355
                ],
                [
                    0.31189054250717163,
                    -0.40466827154159546,
                    0.32883480191230774,
                    0.10204578191041946,
                    -0.878128707408905
                ],
                [
                    1.1476505994796753,
                    -0.016860663890838623,
                    1.2305495738983154,
                    -0.0668250322341919,
                    0.8045095801353455
                ],
                [
                    0.06828281283378601,
                    -0.08211785554885864,
                    0.509128749370575,
                    0.058855749666690826,
                    -0.11201195418834686
                ],
                [
                    0.14888215065002441,
                    0.5207012891769409,
                    0.9496537446975708,
                    0.45786532759666443,
                    -0.9296914339065552
                ]
            ],
            "grad_output": [
                [
                    0.05736973509192467,
                    -0.09197640419006348,
                    0.041158393025398254,
                    0.09458101540803909,
                    -0.002933388575911522
                ],
                [
                    -0.004087658599019051,
                    0.008128099143505096,
                    -0.0017644739709794521,
                    -0.004681795369833708,
                    0.002024814486503601
                ],
                [
                    -0.010137883014976978,
                    0.018320560455322266,
                    -0.00646112160757184,
                    -0.020271828398108482,
                    -0.0012772837653756142
                ],
                [
                    -0.004599298350512981,
                    0.01011422835290432,
                    -0.0015676356852054596,
                    -0.0066128941252827644,
                    0.0016520533245056868
                ],
                [
                    -0.0006321912514977157,
                    0.0011424579424783587,
                    -0.00040291022742167115,
                    -0.0012641374487429857,
                    -7.965070835780352e-05
                ]
            ]
        },
        "3_Linear": {
            "input": [
                [
                    0.0,
                    0.1544734239578247,
                    0.5537309050559998,
                    0.4793105125427246,
                    0.0
                ],
                [
                    0.31189054250717163,
                    0.0,
                    0.32883480191230774,
                    0.10204578191041946,
                    0.0
                ],
                [
                    1.1476505994796753,
                    0.0,
                    1.2305495738983154,
                    0.0,
                    0.8045095801353455
                ],
                [
                    0.06828281283378601,
                    0.0,
                    0.509128749370575,
                    0.058855749666690826,
                    0.0
                ],
                [
                    0.14888215065002441,
                    0.5207012891769409,
                    0.9496537446975708,
                    0.45786532759666443,
                    0.0
                ]
            ],
            "weight": [
                [
                    0.11381328105926514,
                    0.17260092496871948,
                    0.2211240530014038,
                    -0.42352232336997986,
                    -0.3142324686050415
                ],
                [
                    0.0637856125831604,
                    -0.4254532754421234,
                    -0.19398438930511475,
                    -0.3170681893825531,
                    -0.375942200422287
                ],
                [
                    -0.10007709264755249,
                    0.4042482376098633,
                    0.23904621601104736,
                    -0.19220054149627686,
                    0.007637202739715576
                ],
                [
                    0.2655128240585327,
                    -0.23212413489818573,
                    0.4372602105140686,
                    0.41612768173217773,
                    -0.011575311422348022
                ],
                [
                    0.33090275526046753,
                    -0.3616761565208435,
                    -0.12377619743347168,
                    0.29882335662841797,
                    -0.21596910059452057
                ]
            ],
            "bias": [
                -0.07235255837440491,
                0.28387677669525146,
                0.2237357497215271,
                0.4222204089164734,
                -0.4166319966316223
            ],
            "grad_output": [
                [
                    0.0,
                    0.0,
                    -0.13202908635139465,
                    0.16630703210830688,
                    0.0
                ],
                [
                    0.0,
                    -0.004872285760939121,
                    0.008691992610692978,
                    -0.010948650538921356,
                    0.0
                ],
                [
                    0.005822214297950268,
                    0.0,
                    0.024856029078364372,
                    -0.031309258192777634,
                    0.0
                ],
                [
                    0.0024284981191158295,
                    -0.005811584647744894,
                    0.010367673821747303,
                    -0.013059373944997787,
                    0.0
                ],
                [
                    0.00036306981928646564,
                    0.0,
                    0.001550006214529276,
                    -0.00195242278277874,
                    0.0
                ]
            ],
            "grad_weight": [
                [
                    0.11381328105926514,
                    0.17260092496871948,
                    0.2211240530014038,
                    -0.42352232336997986,
                    -0.3142324686050415
                ],
                [
                    0.0637856125831604,
                    -0.4254532754421234,
                    -0.19398438930511475,
                    -0.3170681893825531,
                    -0.375942200422287
                ],
                [
                    -0.10007709264755249,
                    0.4042482376098633,
                    0.23904621601104736,
                    -0.19220054149627686,
                    0.007637202739715576
                ],
                [
                    0.2655128240585327,
                    -0.23212413489818573,
                    0.4372602105140686,
                    0.41612768173217773,
                    -0.011575311422348022
                ],
                [
                    0.33090275526046753,
                    -0.3616761565208435,
                    -0.12377619743347168,
                    0.29882335662841797,
                    -0.21596910059452057
                ]
            ],
            "grad_bias": [
                -0.07235255837440491,
                0.28387677669525146,
                0.2237357497215271,
                0.4222204089164734,
                -0.4166319966316223
            ]
        },
        "4_ReLU": {
            "input": [
                [
                    -0.12624576687812805,
                    -0.041233718395233154,
                    0.32642489671707153,
                    0.8279422521591187,
                    -0.3978108763694763
                ],
                [
                    -0.0073606520891189575,
                    0.207626610994339,
                    0.25151610374450684,
                    0.691281795501709,
                    -0.3236348032951355
                ],
                [
                    0.07756641507148743,
                    -0.18407613039016724,
                    0.40918463468551636,
                    1.2556942701339722,
                    -0.3629332184791565
                ],
                [
                    0.023072823882102966,
                    0.17080792784690857,
                    0.3272953927516937,
                    0.687463641166687,
                    -0.43946757912635803
                ],
                [
                    0.05054083466529846,
                    -0.2575532793998718,
                    0.5583378076553345,
                    0.9466594457626343,
                    -0.5364153981208801
                ]
            ],
            "grad_output": [
                [
                    -0.030926160514354706,
                    0.07400870323181152,
                    -0.13202908635139465,
                    0.16630703210830688,
                    -0.30378830432891846
                ],
                [
                    0.002035990357398987,
                    -0.004872285760939121,
                    0.008691992610692978,
                    -0.010948650538921356,
                    0.019999586045742035
                ],
                [
                    0.005822214297950268,
                    -0.013933011330664158,
                    0.024856029078364372,
                    -0.031309258192777634,
                    0.05719172954559326
                ],
                [
                    0.0024284981191158295,
                    -0.005811584647744894,
                    0.010367673821747303,
                    -0.013059373944997787,
                    0.023855185136198997
                ],
                [
                    0.00036306981928646564,
                    -0.000868852948769927,
                    0.001550006214529276,
                    -0.00195242278277874,
                    0.003566435072571039
                ]
            ]
        },
        "5_Linear": {
            "input": [
                [
                    0.0,
                    0.0,
                    0.32642489671707153,
                    0.8279422521591187,
                    0.0
                ],
                [
                    0.0,
                    0.207626610994339,
                    0.25151610374450684,
                    0.691281795501709,
                    0.0
                ],
                [
                    0.07756641507148743,
                    0.0,
                    0.40918463468551636,
                    1.2556942701339722,
                    0.0
                ],
                [
                    0.023072823882102966,
                    0.17080792784690857,
                    0.3272953927516937,
                    0.687463641166687,
                    0.0
                ],
                [
                    0.05054083466529846,
                    0.0,
                    0.5583378076553345,
                    0.9466594457626343,
                    0.0
                ]
            ],
            "weight": [
                [
                    0.05933481454849243,
                    0.04639872908592224,
                    0.10041099786758423,
                    0.20813798904418945,
                    -0.382046639919281
                ],
                [
                    0.13591885566711426,
                    -0.13687282800674438,
                    0.4273613691329956,
                    -0.2036966234445572,
                    0.37023991346359253
                ]
            ],
            "bias": [
                0.3562890291213989,
                0.28470367193222046
            ],
            "grad_output": [
                [
                    0.4038199186325073,
                    -0.4038199186325073
                ],
                [
                    -0.02658507227897644,
                    0.026585057377815247
                ],
                [
                    -0.07602386176586151,
                    0.07602386176586151
                ],
                [
                    -0.03171023726463318,
                    0.03171023726463318
                ],
                [
                    -0.004740789532661438,
                    0.004740796983242035
                ]
            ],
            "grad_weight": [
                [
                    0.05933481454849243,
                    0.04639872908592224,
                    0.10041099786758423,
                    0.20813798904418945,
                    -0.382046639919281
                ],
                [
                    0.13591885566711426,
                    -0.13687282800674438,
                    0.4273613691329956,
                    -0.2036966234445572,
                    0.37023991346359253
                ]
            ],
            "grad_bias": [
                0.3562890291213989,
                0.28470367193222046
            ]
        },
        "6_Identity": {
            "input": [
                [
                    0.5613919496536255,
                    0.25555601716041565
                ],
                [
                    0.5350596308708191,
                    0.22296172380447388
                ],
                [
                    0.6633357405662537,
                    0.21433541178703308
                ],
                [
                    0.5415346622467041,
                    0.2643001079559326
                ],
                [
                    0.61238694190979,
                    0.33735379576683044
                ]
            ],
            "grad_output": [
                [
                    0.4038199186325073,
                    -0.4038199186325073
                ],
                [
                    -0.02658507227897644,
                    0.026585057377815247
                ],
                [
                    -0.07602386176586151,
                    0.07602386176586151
                ],
                [
                    -0.03171023726463318,
                    0.03171023726463318
                ],
                [
                    -0.004740789532661438,
                    0.004740796983242035
                ]
            ]
        }
    },
    "2": {
        "1_Linear": {
            "input": [
                [
                    -0.9597962498664856,
                    -0.25438860058784485,
                    0.8253288865089417,
                    1.4685378074645996,
                    0.00385411293245852
                ],
                [
                    -0.9285380840301514,
                    -0.30614957213401794,
                    -0.18868665397167206,
                    -0.6789489984512329,
                    -1.4926602840423584
                ],
                [
                    -0.2579786479473114,
                    -0.22913594543933868,
                    0.8782187700271606,
                    -0.7663930058479309,
                    -0.2944064140319824
                ],
                [
                    0.9957464337348938,
                    -2.414156198501587,
                    1.819204568862915,
                    -0.21734768152236938,
                    0.058375272899866104
                ],
                [
                    0.5215412378311157,
                    -0.961625874042511,
                    -0.6402603983879089,
                    0.6539696455001831,
                    0.3973231613636017
                ]
            ],
            "weight": [
                [
                    -0.023540228605270386,
                    -0.322441041469574,
                    -0.12374866008758545,
                    -0.0748634934425354,
                    -0.35792773962020874
                ],
                [
                    -0.19134321808815002,
                    -0.2304716259241104,
                    -0.18260011076927185,
                    0.11526191234588623,
                    0.1035999059677124
                ],
                [
                    -0.2623252868652344,
                    -0.3472907245159149,
                    -0.17376720905303955,
                    -0.05331727862358093,
                    -0.09481456875801086
                ],
                [
                    -0.033815860748291016,
                    -0.02890646457672119,
                    -0.09140697121620178,
                    0.3193816542625427,
                    0.009938091039657593
                ],
                [
                    0.33045393228530884,
                    -0.4425048530101776,
                    0.31146740913391113,
                    -0.17802315950393677,
                    -0.14780303835868835
                ]
            ],
            "bias": [
                0.26319849491119385,
                -0.31818991899490356,
                0.32563239336013794,
                0.12614542245864868,
                -0.06251847743988037
            ],
            "grad_output": [
                [
                    0.002636862453073263,
                    0.0,
                    0.001138224732130766,
                    0.003020128235220909,
                    0.0
                ],
                [
                    -0.01623690500855446,
                    0.0,
                    -0.005534224212169647,
                    0.0,
                    0.005832246039062738
                ],
                [
                    -0.006881481967866421,
                    0.0,
                    -0.002970451023429632,
                    0.0,
                    0.003408730262890458
                ],
                [
                    0.018558278679847717,
                    0.0,
                    0.013314145617187023,
                    0.0,
                    -0.0009489086805842817
                ],
                [
                    -0.02491511031985283,
                    0.03994444012641907,
                    -0.017874686047434807,
                    -0.04107560217380524,
                    0.0012739417143166065
                ]
            ],
            "grad_weight": [
                [
                    -0.023540228605270386,
                    -0.322441041469574,
                    -0.12374866008758545,
                    -0.0748634934425354,
                    -0.35792773962020874
                ],
                [
                    -0.19134321808815002,
                    -0.2304716259241104,
                    -0.18260011076927185,
                    0.11526191234588623,
                    0.1035999059677124
                ],
                [
                    -0.2623252868652344,
                    -0.3472907245159149,
                    -0.17376720905303955,
                    -0.05331727862358093,
                    -0.09481456875801086
                ],
                [
                    -0.033815860748291016,
                    -0.02890646457672119,
                    -0.09140697121620178,
                    0.3193816542625427,
                    0.009938091039657593
                ],
                [
                    0.33045393228530884,
                    -0.4425048530101776,
                    0.31146740913391113,
                    -0.17802315950393677,
                    -0.14780303835868835
                ]
            ],
            "grad_bias": [
                0.26319849491119385,
                -0.31818991899490356,
                0.32563239336013794,
                0.12614542245864868,
                -0.06251847743988037
            ]
        },
        "2_ReLU": {
            "input": [
                [
                    0.1543649286031723,
                    -0.0569494366645813,
                    0.4436790645122528,
                    0.5595767498016357,
                    -0.2720590829849243
                ],
                [
                    0.9922144412994385,
                    -0.26840388774871826,
                    0.8860475420951843,
                    -0.04803633689880371,
                    0.04883376508951187
                ],
                [
                    0.39722689986228943,
                    -0.49521735310554504,
                    0.3890538811683655,
                    -0.186480313539505,
                    0.40711161494255066
                ],
                [
                    0.7884345650672913,
                    -0.3035159707069397,
                    0.5927724838256836,
                    -0.07286658883094788,
                    1.9314935207366943
                ],
                [
                    0.44904887676239014,
                    0.037096232175827026,
                    0.5614990592002869,
                    0.4076450765132904,
                    0.16078343987464905
                ]
            ],
            "grad_output": [
                [
                    0.002636862453073263,
                    -0.005243266001343727,
                    0.001138224732130766,
                    0.003020128235220909,
                    -0.0013061652425676584
                ],
                [
                    -0.01623690500855446,
                    0.03570626676082611,
                    -0.005534224212169647,
                    -0.023345503956079483,
                    0.005832246039062738
                ],
                [
                    -0.006881481967866421,
                    0.01368347555398941,
                    -0.002970451023429632,
                    -0.00788169912993908,
                    0.003408730262890458
                ],
                [
                    0.018558278679847717,
                    -0.029753029346466064,
                    0.013314145617187023,
                    0.03059558942914009,
                    -0.0009489086805842817
                ],
                [
                    -0.02491511031985283,
                    0.03994444012641907,
                    -0.017874686047434807,
                    -0.04107560217380524,
                    0.0012739417143166065
                ]
            ]
        },
        "3_Linear": {
            "input": [
                [
                    0.1543649286031723,
                    0.0,
                    0.4436790645122528,
                    0.5595767498016357,
                    0.0
                ],
                [
                    0.9922144412994385,
                    0.0,
                    0.8860475420951843,
                    0.0,
                    0.04883376508951187
                ],
                [
                    0.39722689986228943,
                    0.0,
                    0.3890538811683655,
                    0.0,
                    0.40711161494255066
                ],
                [
                    0.7884345650672913,
                    0.0,
                    0.5927724838256836,
                    0.0,
                    1.9314935207366943
                ],
                [
                    0.44904887676239014,
                    0.037096232175827026,
                    0.5614990592002869,
                    0.4076450765132904,
                    0.16078343987464905
                ]
            ],
            "weight": [
                [
                    0.11381328105926514,
                    0.17260092496871948,
                    0.2211240530014038,
                    -0.42352232336997986,
                    -0.3142324686050415
                ],
                [
                    0.0637856125831604,
                    -0.4254532754421234,
                    -0.19398438930511475,
                    -0.3170681893825531,
                    -0.375942200422287
                ],
                [
                    -0.10007709264755249,
                    0.4042482376098633,
                    0.23904621601104736,
                    -0.19220054149627686,
                    0.007637202739715576
                ],
                [
                    0.2655128240585327,
                    -0.23212413489818573,
                    0.4372602105140686,
                    0.41612768173217773,
                    -0.011575311422348022
                ],
                [
                    0.33090275526046753,
                    -0.3616761565208435,
                    -0.12377619743347168,
                    0.29882335662841797,
                    -0.21596910059452057
                ]
            ],
            "bias": [
                -0.07235255837440491,
                0.28387677669525146,
                0.2237357497215271,
                0.4222204089164734,
                -0.4166319966316223
            ],
            "grad_output": [
                [
                    0.0,
                    0.003143009264022112,
                    -0.005607022903859615,
                    0.007062744349241257,
                    0.0
                ],
                [
                    0.008573328144848347,
                    -0.020516641438007355,
                    0.03660100698471069,
                    -0.04610351473093033,
                    0.0
                ],
                [
                    0.0,
                    -0.008202385157346725,
                    0.014632782898843288,
                    -0.018431808799505234,
                    0.0
                ],
                [
                    0.0,
                    0.0,
                    -0.04270949214696884,
                    0.05379791557788849,
                    0.0
                ],
                [
                    0.0,
                    0.0,
                    0.05733892321586609,
                    -0.07222550362348557,
                    0.0
                ]
            ],
            "grad_weight": [
                [
                    0.11381328105926514,
                    0.17260092496871948,
                    0.2211240530014038,
                    -0.42352232336997986,
                    -0.3142324686050415
                ],
                [
                    0.0637856125831604,
                    -0.4254532754421234,
                    -0.19398438930511475,
                    -0.3170681893825531,
                    -0.375942200422287
                ],
                [
                    -0.10007709264755249,
                    0.4042482376098633,
                    0.23904621601104736,
                    -0.19220054149627686,
                    0.007637202739715576
                ],
                [
                    0.2655128240585327,
                    -0.23212413489818573,
                    0.4372602105140686,
                    0.41612768173217773,
                    -0.011575311422348022
                ],
                [
                    0.33090275526046753,
                    -0.3616761565208435,
                    -0.12377619743347168,
                    0.29882335662841797,
                    -0.21596910059452057
                ]
            ],
            "grad_bias": [
                -0.07235255837440491,
                0.28387677669525146,
                0.2237357497215271,
                0.4222204089164734,
                -0.4166319966316223
            ]
        },
        "4_ReLU": {
            "input": [
                [
                    -0.1936689019203186,
                    0.030232250690460205,
                    0.20679619908332825,
                    0.8900648355484009,
                    -0.2532545328140259
                ],
                [
                    0.22115591168403625,
                    0.15692771971225739,
                    0.3366170823574066,
                    1.0725340843200684,
                    -0.2085236757993698
                ],
                [
                    -0.06904137134552002,
                    0.080693319439888,
                    0.2800934910774231,
                    0.6930946111679077,
                    -0.42126765847206116
                ],
                [
                    -0.45847997069358826,
                    -0.5069510340690613,
                    0.30128273367881775,
                    0.8683980703353882,
                    -0.6462509036064148
                ],
                [
                    -0.11385119706392288,
                    -0.0018816888332366943,
                    0.2508948743343353,
                    0.9461302161216736,
                    -0.26386791467666626
                ]
            ],
            "grad_output": [
                [
                    -0.0013133746106177568,
                    0.003143009264022112,
                    -0.005607022903859615,
                    0.007062744349241257,
                    -0.012901313602924347
                ],
                [
                    0.008573328144848347,
                    -0.020516641438007355,
                    0.03660100698471069,
                    -0.04610351473093033,
                    0.08421597629785538
                ],
                [
                    0.0034275467041879892,
                    -0.008202385157346725,
                    0.014632782898843288,
                    -0.018431808799505234,
                    0.03366885706782341
                ],
                [
                    -0.010004166513681412,
                    0.02394074574112892,
                    -0.04270949214696884,
                    0.05379791557788849,
                    -0.09827111661434174
                ],
                [
                    0.013430926017463207,
                    -0.03214125335216522,
                    0.05733892321586609,
                    -0.07222550362348557,
                    0.13193227350711823
                ]
            ]
        },
        "5_Linear": {
            "input": [
                [
                    0.0,
                    0.030232250690460205,
                    0.20679619908332825,
                    0.8900648355484009,
                    0.0
                ],
                [
                    0.22115591168403625,
                    0.15692771971225739,
                    0.3366170823574066,
                    1.0725340843200684,
                    0.0
                ],
                [
                    0.0,
                    0.080693319439888,
                    0.2800934910774231,
                    0.6930946111679077,
                    0.0
                ],
                [
                    0.0,
                    0.0,
                    0.30128273367881775,
                    0.8683980703353882,
                    0.0
                ],
                [
                    0.0,
                    0.0,
                    0.2508948743343353,
                    0.9461302161216736,
                    0.0
                ]
            ],
            "weight": [
                [
                    0.05933481454849243,
                    0.04639872908592224,
                    0.10041099786758423,
                    0.20813798904418945,
                    -0.382046639919281
                ],
                [
                    0.13591885566711426,
                    -0.13687282800674438,
                    0.4273613691329956,
                    -0.2036966234445572,
                    0.37023991346359253
                ]
            ],
            "bias": [
                0.3562890291213989,
                0.28470367193222046
            ],
            "grad_output": [
                [
                    0.01714947074651718,
                    -0.017149463295936584
                ],
                [
                    -0.11194667220115662,
                    0.11194667220115662
                ],
                [
                    -0.04475536197423935,
                    0.04475536197423935
                ],
                [
                    0.13062989711761475,
                    -0.13062989711761475
                ],
                [
                    -0.17537502944469452,
                    0.17537501454353333
                ]
            ],
            "grad_weight": [
                [
                    0.05933481454849243,
                    0.04639872908592224,
                    0.10041099786758423,
                    0.20813798904418945,
                    -0.382046639919281
                ],
                [
                    0.13591885566711426,
                    -0.13687282800674438,
                    0.4273613691329956,
                    -0.2036966234445572,
                    0.37023991346359253
                ]
            ],
            "grad_bias": [
                0.3562890291213989,
                0.28470367193222046
            ]
        },
        "6_Identity": {
            "input": [
                [
                    0.5637127161026001,
                    0.18763920664787292
                ],
                [
                    0.6337276697158813,
                    0.2186693549156189
                ],
                [
                    0.5324168801307678,
                    0.2521790564060211
                ],
                [
                    0.5672877430915833,
                    0.23657052218914032
                ],
                [
                    0.5784072875976562,
                    0.19920292496681213
                ]
            ],
            "grad_output": [
                [
                    0.01714947074651718,
                    -0.017149463295936584
                ],
                [
                    -0.11194667220115662,
                    0.11194667220115662
                ],
                [
                    -0.04475536197423935,
                    0.04475536197423935
                ],
                [
                    0.13062989711761475,
                    -0.13062989711761475
                ],
                [
                    -0.17537502944469452,
                    0.17537501454353333
                ]
            ]
        }
    }
}