{
    "architecture": {
        "1_Identity": {},
        "2_Linear": {
            "in_features": 5.0,
            " out_features": 5.0,
            " bias": true
        },
        "3_ReLU": {},
        "4_Linear": {
            "in_features": 5.0,
            " out_features": 5.0,
            " bias": true
        },
        "5_ReLU": {},
        "6_Linear": {
            "in_features": 5.0,
            " out_features": 2.0,
            " bias": true
        },
        "7_Identity": {}
    },
    "1": {
        "1_Identity": {
            "input": [
                0.3944554924964905,
                -0.03600509092211723,
                -0.17025086283683777,
                -0.31027644872665405,
                -0.7397191524505615
            ],
            "grad_input": [
                0.0024595404975116253,
                0.00013651055633090436,
                0.00013846690126229078,
                0.0003592321299947798,
                0.0010017795721068978
            ]
        },
        "2_Linear": {
            "input": [
                0.3944554924964905,
                -0.03600509092211723,
                -0.17025086283683777,
                -0.31027644872665405,
                -0.7397191524505615
            ],
            "weight": [
                [
                    0.35647130012512207,
                    0.24860620498657227,
                    0.356418251991272,
                    0.08625483512878418,
                    -0.19796350598335266
                ],
                [
                    -0.3274541199207306,
                    -0.2721216380596161,
                    -0.3426072597503662,
                    -0.3737785220146179,
                    -0.24905970692634583
                ],
                [
                    0.25390446186065674,
                    -0.03791108727455139,
                    -0.11263960599899292,
                    -0.21584291756153107,
                    -0.04927480220794678
                ],
                [
                    0.22876203060150146,
                    -0.3156895935535431,
                    -0.37264981865882874,
                    0.28572404384613037,
                    0.13555467128753662
                ],
                [
                    -0.3338375985622406,
                    0.08587896823883057,
                    0.025831222534179688,
                    -0.2277858704328537,
                    -0.4258701205253601
                ]
            ],
            "bias": [
                0.3930845260620117,
                0.295074462890625,
                -0.15405523777008057,
                0.12457126379013062,
                -0.3187059760093689
            ],
            "grad_input": [
                0.0024595404975116253,
                0.00013651055633090436,
                0.00013846690126229078,
                0.0003592321299947798,
                0.0010017795721068978
            ],
            "grad_weight": [
                [
                    0.35647130012512207,
                    0.24860620498657227,
                    0.356418251991272,
                    0.08625483512878418,
                    -0.19796350598335266
                ],
                [
                    -0.3274541199207306,
                    -0.2721216380596161,
                    -0.3426072597503662,
                    -0.3737785220146179,
                    -0.24905970692634583
                ],
                [
                    0.25390446186065674,
                    -0.03791108727455139,
                    -0.11263960599899292,
                    -0.21584291756153107,
                    -0.04927480220794678
                ],
                [
                    0.22876203060150146,
                    -0.3156895935535431,
                    -0.37264981865882874,
                    0.28572404384613037,
                    0.13555467128753662
                ],
                [
                    -0.3338375985622406,
                    0.08587896823883057,
                    0.025831222534179688,
                    -0.2277858704328537,
                    -0.4258701205253601
                ]
            ],
            "grad_bias": [
                0.3930845260620117,
                0.295074462890625,
                -0.15405523777008057,
                0.12457126379013062,
                -0.3187059760093689
            ]
        },
        "3_ReLU": {
            "input": [
                0.5837395191192627,
                0.5342442393302917,
                0.07006122916936874,
                0.1006922721862793,
                -0.07217898219823837
            ],
            "grad_input": [
                0.0006558923632837832,
                -0.0014589650090783834,
                0.0037899292074143887,
                0.00030276301549747586,
                -0.0021461001597344875
            ]
        },
        "4_Linear": {
            "input": [
                0.6592156291007996,
                0.5970523953437805,
                0.1839722990989685,
                0.3895619213581085,
                0.2403455227613449
            ],
            "weight": [
                [
                    0.2620398998260498,
                    -0.1598280966281891,
                    0.11250478029251099,
                    0.3575841784477234,
                    0.08510470390319824
                ],
                [
                    0.21178478002548218,
                    -0.2811775207519531,
                    0.333143413066864,
                    0.020173758268356323,
                    0.38539832830429077
                ],
                [
                    0.3276623487472534,
                    0.22214120626449585,
                    0.11253750324249268,
                    -0.12330061197280884,
                    0.09010601043701172
                ],
                [
                    -0.29333484172821045,
                    0.020130038261413574,
                    0.20354324579238892,
                    0.17994552850723267,
                    0.19931161403656006
                ],
                [
                    -0.2667769491672516,
                    -0.44474390149116516,
                    -0.08619710803031921,
                    0.07588356733322144,
                    0.29654306173324585
                ]
            ],
            "bias": [
                0.10715174674987793,
                0.11363488435745239,
                -0.4344063997268677,
                -0.27882465720176697,
                0.22606736421585083
            ],
            "grad_input": [
                0.00029062145040370524,
                -0.003566460683941841,
                0.001868442865088582,
                0.000403170648496598,
                0.003621476935222745
            ],
            "grad_weight": [
                [
                    0.2620398998260498,
                    -0.1598280966281891,
                    0.11250478029251099,
                    0.3575841784477234,
                    0.08510470390319824
                ],
                [
                    0.21178478002548218,
                    -0.2811775207519531,
                    0.333143413066864,
                    0.020173758268356323,
                    0.38539832830429077
                ],
                [
                    0.3276623487472534,
                    0.22214120626449585,
                    0.11253750324249268,
                    -0.12330061197280884,
                    0.09010601043701172
                ],
                [
                    -0.29333484172821045,
                    0.020130038261413574,
                    0.20354324579238892,
                    0.17994552850723267,
                    0.19931161403656006
                ],
                [
                    -0.2667769491672516,
                    -0.44474390149116516,
                    -0.08619710803031921,
                    0.07588356733322144,
                    0.29654306173324585
                ]
            ],
            "grad_bias": [
                0.10715174674987793,
                0.11363488435745239,
                -0.4344063997268677,
                -0.27882465720176697,
                0.22606736421585083
            ]
        },
        "5_ReLU": {
            "input": [
                0.3649202585220337,
                0.2471458613872528,
                -0.09144918620586395,
                -0.3047269880771637,
                -0.1303553283214569
            ],
            "grad_input": [
                -0.00015485845506191254,
                0.006729590240865946,
                -0.00038520171074196696,
                0.0,
                0.0036277801264077425
            ]
        },
        "6_Linear": {
            "input": [
                0.3649202585220337,
                0.2871772050857544,
                0.04393754526972771,
                0.0,
                0.009538814425468445
            ],
            "weight": [
                [
                    0.2128470540046692,
                    -0.334196001291275,
                    0.23970133066177368,
                    -0.032518208026885986,
                    -0.29949212074279785
                ],
                [
                    0.2564518451690674,
                    -0.0973757803440094,
                    0.09140890836715698,
                    0.15050435066223145,
                    0.24062448740005493
                ]
            ],
            "bias": [
                -0.42914459109306335,
                -0.2742268741130829
            ],
            "grad_input": [
                -0.00015485845506191254,
                -0.000841044238768518,
                0.0005266455700621009,
                -0.000649987137876451,
                -0.0019181728130206466
            ],
            "grad_weight": [
                [
                    0.2128470540046692,
                    -0.334196001291275,
                    0.23970133066177368,
                    -0.032518208026885986,
                    -0.29949212074279785
                ],
                [
                    0.2564518451690674,
                    -0.0973757803440094,
                    0.09140890836715698,
                    0.15050435066223145,
                    0.24062448740005493
                ]
            ],
            "grad_bias": [
                -0.42914459109306335,
                -0.2742268741130829
            ]
        },
        "7_Identity": {
            "input": [
                -0.43977078795433044,
                -0.2022949457168579
            ],
            "grad_input": [
                0.0035514056216925383,
                -0.0035514056216925383
            ]
        }
    },
    "2": {
        "1_Identity": {
            "input": [
                -0.5258785486221313,
                0.034004878252744675,
                -0.6938198804855347,
                0.6766908764839172,
                -0.055806148797273636
            ],
            "grad_input": [
                0.0007403615163639188,
                0.00016907081590034068,
                9.5658193458803e-05,
                0.0019602817483246326,
                0.002105200197547674
            ]
        },
        "2_Linear": {
            "input": [
                -0.5258785486221313,
                0.034004878252744675,
                -0.6938198804855347,
                0.6766908764839172,
                -0.055806148797273636
            ],
            "weight": [
                [
                    0.35647130012512207,
                    0.24860620498657227,
                    0.356418251991272,
                    0.08625483512878418,
                    -0.19796350598335266
                ],
                [
                    -0.3274541199207306,
                    -0.2721216380596161,
                    -0.3426072597503662,
                    -0.3737785220146179,
                    -0.24905970692634583
                ],
                [
                    0.25390446186065674,
                    -0.03791108727455139,
                    -0.11263960599899292,
                    -0.21584291756153107,
                    -0.04927480220794678
                ],
                [
                    0.22876203060150146,
                    -0.3156895935535431,
                    -0.37264981865882874,
                    0.28572404384613037,
                    0.13555467128753662
                ],
                [
                    -0.3338375985622406,
                    0.08587896823883057,
                    0.025831222534179688,
                    -0.2277858704328537,
                    -0.4258701205253601
                ]
            ],
            "bias": [
                0.3930845260620117,
                0.295074462890625,
                -0.15405523777008057,
                0.12457126379013062,
                -0.3187059760093689
            ],
            "grad_input": [
                0.0007403615163639188,
                0.00016907081590034068,
                9.5658193458803e-05,
                0.0019602817483246326,
                0.002105200197547674
            ],
            "grad_weight": [
                [
                    0.35647130012512207,
                    0.24860620498657227,
                    0.356418251991272,
                    0.08625483512878418,
                    -0.19796350598335266
                ],
                [
                    -0.3274541199207306,
                    -0.2721216380596161,
                    -0.3426072597503662,
                    -0.3737785220146179,
                    -0.24905970692634583
                ],
                [
                    0.25390446186065674,
                    -0.03791108727455139,
                    -0.11263960599899292,
                    -0.21584291756153107,
                    -0.04927480220794678
                ],
                [
                    0.22876203060150146,
                    -0.3156895935535431,
                    -0.37264981865882874,
                    0.28572404384613037,
                    0.13555467128753662
                ],
                [
                    -0.3338375985622406,
                    0.08587896823883057,
                    0.025831222534179688,
                    -0.2277858704328537,
                    -0.4258701205253601
                ]
            ],
            "grad_bias": [
                0.3930845260620117,
                0.295074462890625,
                -0.15405523777008057,
                0.12457126379013062,
                -0.3187059760093689
            ]
        },
        "3_ReLU": {
            "input": [
                0.03620311990380287,
                0.45669636130332947,
                -0.35402482748031616,
                0.4378691613674164,
                -0.2885242998600006
            ],
            "grad_input": [
                -0.0033857892267405987,
                -0.005107770208269358,
                0.0,
                0.001200976432301104,
                0.0
            ]
        },
        "4_Linear": {
            "input": [
                0.17289522290229797,
                0.517135739326477,
                0.0,
                0.4532887935638428,
                0.051628805696964264
            ],
            "weight": [
                [
                    0.2620398998260498,
                    -0.1598280966281891,
                    0.11250478029251099,
                    0.3575841784477234,
                    0.08510470390319824
                ],
                [
                    0.21178478002548218,
                    -0.2811775207519531,
                    0.333143413066864,
                    0.020173758268356323,
                    0.38539832830429077
                ],
                [
                    0.3276623487472534,
                    0.22214120626449585,
                    0.11253750324249268,
                    -0.12330061197280884,
                    0.09010601043701172
                ],
                [
                    -0.29333484172821045,
                    0.020130038261413574,
                    0.20354324579238892,
                    0.17994552850723267,
                    0.19931161403656006
                ],
                [
                    -0.2667769491672516,
                    -0.44474390149116516,
                    -0.08619710803031921,
                    0.07588356733322144,
                    0.29654306173324585
                ]
            ],
            "bias": [
                0.10715174674987793,
                0.11363488435745239,
                -0.4344063997268677,
                -0.27882465720176697,
                0.22606736421585083
            ],
            "grad_input": [
                -0.0034511559642851353,
                -0.010266329161822796,
                0.0009874328970909119,
                0.001200976432301104,
                0.008459133096039295
            ],
            "grad_weight": [
                [
                    0.2620398998260498,
                    -0.1598280966281891,
                    0.11250478029251099,
                    0.3575841784477234,
                    0.08510470390319824
                ],
                [
                    0.21178478002548218,
                    -0.2811775207519531,
                    0.333143413066864,
                    0.020173758268356323,
                    0.38539832830429077
                ],
                [
                    0.3276623487472534,
                    0.22214120626449585,
                    0.11253750324249268,
                    -0.12330061197280884,
                    0.09010601043701172
                ],
                [
                    -0.29333484172821045,
                    0.020130038261413574,
                    0.20354324579238892,
                    0.17994552850723267,
                    0.19931161403656006
                ],
                [
                    -0.2667769491672516,
                    -0.44474390149116516,
                    -0.08619710803031921,
                    0.07588356733322144,
                    0.29654306173324585
                ]
            ],
            "grad_bias": [
                0.10715174674987793,
                0.11363488435745239,
                -0.4344063997268677,
                -0.27882465720176697,
                0.22606736421585083
            ]
        },
        "5_ReLU": {
            "input": [
                0.23628711700439453,
                0.033886685967445374,
                -0.3141166865825653,
                -0.2272733747959137,
                -0.0003427535411901772
            ],
            "grad_input": [
                -0.0009899220895022154,
                0.00804669689387083,
                0.0,
                0.0,
                0.018352126702666283
            ]
        },
        "6_Linear": {
            "input": [
                0.24310509860515594,
                0.07082990556955338,
                0.0,
                0.0,
                0.03567991778254509
            ],
            "weight": [
                [
                    0.2128470540046692,
                    -0.334196001291275,
                    0.23970133066177368,
                    -0.032518208026885986,
                    -0.29949212074279785
                ],
                [
                    0.2564518451690674,
                    -0.0973757803440094,
                    0.09140890836715698,
                    0.15050435066223145,
                    0.24062448740005493
                ]
            ],
            "bias": [
                -0.42914459109306335,
                -0.2742268741130829
            ],
            "grad_input": [
                -0.003653523977845907,
                -0.01984250731766224,
                0.012425009161233902,
                -0.015334948897361755,
                -0.04525486379861832
            ],
            "grad_weight": [
                [
                    0.2128470540046692,
                    -0.334196001291275,
                    0.23970133066177368,
                    -0.032518208026885986,
                    -0.29949212074279785
                ],
                [
                    0.2564518451690674,
                    -0.0973757803440094,
                    0.09140890836715698,
                    0.15050435066223145,
                    0.24062448740005493
                ]
            ],
            "grad_bias": [
                -0.42914459109306335,
                -0.2742268741130829
            ]
        },
        "7_Identity": {
            "input": [
                -0.41175732016563416,
                -0.21019378304481506
            ],
            "grad_input": [
                0.0837872102856636,
                -0.0837872102856636
            ]
        }
    }
}